\data\
ngram 1=168
ngram 2=310
ngram 3=338

\1-grams:
-2.4986534	<unk>	0
0	<s>	-0.43349916
-0.83345085	</s>	0
-2.3183315	我｜gua2	-0.10669107
-2.3816333	感-覺｜kam2-kak4	-0.06855827
-1.8391671	你｜li2	-0.088586785
-1.9486029	按-呢｜an2-ne1	-0.14227283
-2.2203066	處-理｜tshu2-li2	-0.06855827
-2.3816333	袂｜be7	-0.06855827
-2.3816333	妥-當｜tho3-tong3	-0.06855827
-2.3816333	要｜iau3	-0.06855827
-1.9486029	佮｜kah4	-0.17565988
-2.0952559	問｜mng7	-0.20713966
-2.3816333	予｜hoo7	-0.06855827
-2.3816333	清-楚｜tshing1-tsho2	-0.06855827
-2.3816333	敢-是｜kam2-si7	-0.06855827
-2.3183315	有｜u7	-0.06855824
-2.3183315	伊｜i1	-0.124776684
-2.3816333	確-定｜khak4-ting7	-0.06855827
-2.2203066	一-下｜tsit8-e7	-0.06855827
-2.3816333	彼｜hit4	-0.06855827
-2.3816333	件｜kiann7	-0.06855827
-2.0952559	代-誌｜tai7-tsi3	-0.20713966
-2.2203066	無｜bo5	-0.06855827
-2.3816333	朋-友｜ping5-iu2	-0.06855827
-2.3183315	講｜kong2	-0.100739196
-2.3816333	伊-認-為｜i1-jin7-ui5	-0.06855827
-2.2203066	會-使｜e7-sai2	-0.06855827
-2.3816333	未｜be7	-0.06855827
-2.3816333	伊-有｜i1-u7	-0.06855827
-2.3816333	按-算-欲｜an3-sng3-beh4	-0.06855827
-2.3816333	過｜ke3	-0.06855827
-2.3816333	來-無｜lai5-0bo5	-0.06855827
-2.3816333	攏-講｜long2-kong2	-0.06855827
-2.2203066	好-矣｜ho2-0ah4	-0.06855827
-1.4706084	，	-0.7027992
-2.3816333	伊-講｜i1-kong2	-0.06855827
-2.2203066	共｜ka7	-0.06855827
-2.2203066	講-的｜kong2-e5	-0.26527768
-2.2203066	較｜khah4	-0.06855827
-2.3816333	注-意｜tsu3-i3	-0.06855827
-2.3816333	的｜e5	-0.06855827
-2.3816333	明-仔｜bin5-a2	-0.06855827
-2.3816333	載-去｜tsai3-khi3	-0.06855827
-2.2203066	遐｜hia5	-0.06855827
-2.3816333	共-伊｜ka7-i1	-0.06855827
-2.3816333	提-物-件｜theh8-mih8-kiann7	-0.06855827
-2.3816333	無-好｜bo5-ho2	-0.06855827
-2.3816333	毋-知｜m7-tsai1	-0.06855827
-2.3183315	這-馬｜tsit4-ma2	-0.06855827
-2.2203066	啥-物｜siann2-mih8	-0.06855827
-2.3816333	意-思｜i3-su3	-0.06855827
-2.3816333	咱｜lan2	-0.06855824
-2.3183315	頂｜ting2	-0.100739196
-2.3816333	遍｜pian3	-0.06855827
-2.2203066	敢-有｜kam2-u7	-0.06855827
-2.3816333	答-應｜tap4-ing3	-0.06855827
-2.3183315	矣｜0ah4	-0.100739196
-2.2203066	攏｜long2	-0.06855827
-2.3816333	習-慣｜sip8-kuan3	-0.06855827
-2.3816333	坐｜tse7	-0.06855827
-2.3816333	客｜kheh4	-0.06855827
-2.3816333	程｜thiann5	-0.06855827
-2.3816333	車｜tshia1	-0.06855827
-2.3816333	佇-樓-跤｜ti7-lau5-kha1	-0.06855827
-2.3816333	等-伊｜tan2-0i1	-0.06855827
-2.3816333	開-車｜khui1-tshia1	-0.06855827
-2.3816333	過-來｜kue3-lai5	-0.06855827
-1.9486029	佇｜ti7	-0.18937273
-2.3816333	路-口｜loo7-khau2	-0.06855827
-2.3816333	等-你｜tan2-0li2	-0.06855827
-2.3816333	這-馬-講｜tsit4-ma2-kong2	-0.06855827
-2.2203066	啥｜siann2	-0.06855827
-2.2203066	聽-無｜thiann1-bo5	-0.41187337
-2.3816333	毋-知-影｜m7-tsai1-iann2	-0.06855827
-2.3816333	沒｜but8	-0.06855827
-2.3816333	好-無｜ho2-0bo5	-0.06855827
-1.4310619	？	-0.7375613
-2.3816333	按-呢｜an2-ni1	-0.06855827
-2.3816333	袂-使｜be7-sai2	-0.06855827
-2.2203066	啦｜0lah4	-0.06855827
-2.3816333	等-咧｜tan2-0leh4	-0.06855827
-2.3816333	去｜khi3	-0.06855827
-2.3816333	遐｜hia1	-0.06855827
-2.3816333	敢｜kam2	-0.06855827
-2.2203066	好｜ho2	-0.41187337
-2.3816333	昨-昏｜tsa1-hng1	-0.06855827
-2.3816333	你-的｜li2-e5	-0.06855827
-2.3816333	問-了｜mng7-liau2	-0.06855827
-2.3816333	按-怎｜an3-tsuann2	-0.06855827
-2.3816333	加-油-站｜ka1-iu5-tsam7	-0.06855827
-2.3816333	等-我｜tan2-0gua2	-0.06855827
-2.3816333	連-鞭｜liam5-mi1	-0.06855827
-2.2203066	到｜kau3	-0.06855827
-2.3816333	講-好｜kong2-ho2	-0.06855827
-2.3816333	𤆬｜tshua7	-0.06855827
-2.3816333	去-看｜khi3-khuann3	-0.06855827
-2.3816333	過-矣｜kue3-0ah4	-0.06855827
-2.3816333	實-在｜sit8-tsai7	-0.06855827
-2.3816333	電-話｜tian7-ue7	-0.06855827
-2.2203066	中｜tiong3	-0.06855827
-2.3816333	莫-講｜mai3-kong2	-0.06855827
-2.3816333	這｜tsit4	-0.06855827
-2.3816333	𪜶｜in1	-0.06855827
-2.3816333	老-大-的｜lau2-tua7-0e5	-0.06855827
-2.3816333	已-經｜i2-king1	-0.06855827
-2.3816333	出-門-矣｜tshut4-mng5-0ah4	-0.06855827
-2.3816333	好-啦｜ho2-0lah4	-0.06855827
-2.3183315	佇-佗-位｜ti7-to2-ui7	-0.20015329
-2.3816333	我-欲｜gua2-beh4	-0.06855827
-2.3816333	予-伊｜hoo7-0i1	-0.06855827
-2.3816333	好-看｜ho2-khuann3	-0.06855827
-2.3816333	五-千｜goo7-tshing1	-0.06855827
-2.3816333	講-話｜kong2-ue7	-0.06855827
-2.2203066	愛｜ai3	-0.06855827
-2.3816333	細-膩-咧｜se3-ji7-0leh4	-0.06855827
-2.3816333	準-備｜tsun2-pi7	-0.06855827
-2.3816333	真-認-真｜tsin1-jin7-tsin1	-0.06855827
-2.2203066	咧｜leh4	-0.06855827
-2.3816333	做-代-誌｜tso3-tai7-tsi3	-0.06855827
-2.3816333	頂-禮-拜｜ting2-le2-pai3	-0.06855827
-2.3816333	問-題｜bun7-te5	-0.06855827
-2.3816333	物-件｜mih8-kiann7	-0.06855827
-2.3816333	提｜theh8	-0.06855827
-2.3816333	著-矣｜toh8-0ah4	-0.06855827
-2.3183315	佗｜to2	-0.092467636
-2.2203066	紮｜tsap4	-0.06855827
-2.3816333	佗｜toh4	-0.06855827
-2.3816333	幾-件｜kui2-kiann7	-0.06855827
-2.3816333	陪｜pue5	-0.06855827
-2.3816333	來｜lai5	-0.06855827
-2.3183315	人-佇｜lang5-ti7	-0.092467636
-2.2203066	當-時｜tong1-si5	-0.26527768
-2.3816333	欲-出-門｜beh4-tshut4-mng5	-0.06855827
-2.3816333	猶-未｜a2-be7	-0.06855827
-2.2203066	啥-人｜siann2-lang5	-0.06855827
-2.3816333	做-伙｜tso3-hue2	-0.06855827
-2.3816333	公-司｜kong1-si1	-0.06855827
-2.3816333	呀	-0.06855827
-2.3816333	車-頂｜tshia1-ting2	-0.06855827
-2.3816333	欲｜beh4	-0.06855827
-2.3816333	到-矣｜kau3-0ah4	-0.06855827
-2.3816333	創｜tshong3	-0.06855827
-2.3816333	等｜tan2	-0.06855827
-2.3816333	上-班｜siang7-pan1	-0.06855827
-2.3816333	佇-厝｜ti7-tshu3	-0.06855827
-2.2203066	佇-咧｜ti7-0leh4	-0.26527768
-2.3816333	厝｜tshu3	-0.06855827
-2.3816333	等-一-下｜tan2-0tsit8-e7	-0.06855827
-1.9486029	欲-去｜beh4-khi3	-0.20015329
-2.3183315	佗-位｜to2-ui7	-0.092467636
-2.3816333	啊｜ah4	-0.06855827
-2.2203066	聯-絡｜lian5-lok8	-0.06855827
-2.3816333	伊-佇｜i1-ti7	-0.06855827
-2.3816333	台｜tai5	-0.06855827
-2.3816333	阮｜gun2	-0.06855827
-2.3816333	客-戶｜kheh4-hoo7	-0.06855827
-2.3816333	遮｜tsia1	-0.06855827
-2.3816333	。	-0.06855827
-2.3816333	恁｜lin2	-0.06855824
-2.2203066	紲-落-來｜sua3-0loh8-lai5	-0.41187337
-2.3816333	人｜lang5	-0.06855827
-2.3816333	…	-0.06855827
-2.3816333	結-束-了｜kiat4-sok4-liau2	-0.06855827
-2.3816333	欲-來｜beh4-lai5	-0.06855827
-2.3816333	講-你｜kong2-li2	-0.06855827
-2.3816333	另-外｜ling7-gua7	-0.06855827
-2.3816333	一-个｜tsit8-e5	-0.06855827

\2-grams:
-0.89752966	按-呢｜an2-ne1 </s>	0
-0.566481	妥-當｜tho3-tong3 </s>	0
-0.7026174	無｜bo5 </s>	0
-0.7026174	會-使｜e7-sai2 </s>	0
-0.566481	未｜be7 </s>	0
-0.566481	來-無｜lai5-0bo5 </s>	0
-0.080479436	， </s>	0
-0.566481	的｜e5 </s>	0
-0.566481	提-物-件｜theh8-mih8-kiann7 </s>	0
-0.566481	無-好｜bo5-ho2 </s>	0
-0.566481	意-思｜i3-su3 </s>	0
-0.49028113	矣｜0ah4 </s>	0
-0.566481	等-伊｜tan2-0i1 </s>	0
-0.566481	等-你｜tan2-0li2 </s>	0
-0.17426741	聽-無｜thiann1-bo5 </s>	0
-0.073730685	？ </s>	0
-0.7026174	啦｜0lah4 </s>	0
-0.7026174	到｜kau3 </s>	0
-0.566481	講-好｜kong2-ho2 </s>	0
-0.566481	過-矣｜kue3-0ah4 </s>	0
-0.566481	這｜tsit4 </s>	0
-0.566481	老-大-的｜lau2-tua7-0e5 </s>	0
-0.566481	出-門-矣｜tshut4-mng5-0ah4 </s>	0
-0.566481	好-啦｜ho2-0lah4 </s>	0
-0.47158992	佇-佗-位｜ti7-to2-ui7 </s>	0
-0.566481	好-看｜ho2-khuann3 </s>	0
-0.566481	五-千｜goo7-tshing1 </s>	0
-0.566481	細-膩-咧｜se3-ji7-0leh4 </s>	0
-0.7026174	咧｜leh4 </s>	0
-0.566481	做-代-誌｜tso3-tai7-tsi3 </s>	0
-0.566481	問-題｜bun7-te5 </s>	0
-0.566481	著-矣｜toh8-0ah4 </s>	0
-0.80936843	佗｜to2 </s>	0
-0.566481	佗｜toh4 </s>	0
-0.566481	幾-件｜kui2-kiann7 </s>	0
-0.566481	來｜lai5 </s>	0
-0.7026174	欲-出-門｜beh4-tshut4-mng5 </s>	0
-0.566481	呀 </s>	0
-0.566481	到-矣｜kau3-0ah4 </s>	0
-0.566481	上-班｜siang7-pan1 </s>	0
-0.566481	佇-厝｜ti7-tshu3 </s>	0
-0.7026174	厝｜tshu3 </s>	0
-0.80936843	佗-位｜to2-ui7 </s>	0
-0.7026174	聯-絡｜lian5-lok8 </s>	0
-0.566481	。 </s>	0
-0.566481	… </s>	0
-0.566481	欲-來｜beh4-lai5 </s>	0
-0.9281862	<s> 我｜gua2	-0.10634141
-1.613961	按-呢｜an2-ne1 我｜gua2	-0.059622925
-1.1128389	啥｜siann2 我｜gua2	-0.059622925
-1.0109993	我｜gua2 感-覺｜kam2-kak4	-0.059622925
-0.45401525	<s> 你｜li2	-0.16009939
-1.0686277	感-覺｜kam2-kak4 你｜li2	-0.059622925
-1.0686277	共｜ka7 你｜li2	-0.059622925
-0.8002475	毋-知｜m7-tsai1 你｜li2	-0.059622925
-0.8002475	陪｜pue5 你｜li2	-0.059622925
-0.8002475	啊｜ah4 你｜li2	-0.059622925
-1.8472564	你｜li2 按-呢｜an2-ne1	-0.059622925
-0.8078668	敢-是｜kam2-si7 按-呢｜an2-ne1	-0.059622925
-0.6656496	講｜kong2 按-呢｜an2-ne1	-0.059622925
-1.2613118	講-的｜kong2-e5 按-呢｜an2-ne1	-0.059622925
-1.4109567	這-馬｜tsit4-ma2 按-呢｜an2-ne1	-0.059622925
-1.5985825	按-呢｜an2-ne1 處-理｜tshu2-li2	-0.059622925
-0.82052356	按-呢｜an2-ni1 處-理｜tshu2-li2	-0.059622925
-1.1159843	處-理｜tshu2-li2 袂｜be7	-0.059622925
-0.8251314	袂｜be7 妥-當｜tho3-tong3	-0.059622925
-2.0745692	你｜li2 要｜iau3	-0.059622925
-1.7851256	<s> 佮｜kah4	-0.39185348
-1.8472564	你｜li2 佮｜kah4	-0.059622925
-0.8078668	要｜iau3 佮｜kah4	-0.059622925
-1.2344074	有｜u7 佮｜kah4	-0.059622925
-1.4109567	敢-有｜kam2-u7 佮｜kah4	-0.059622925
-2.3545778	<s> 問｜mng7	-0.059622925
-1.461359	佮｜kah4 問｜mng7	-0.059622925
-1.0975963	共｜ka7 問｜mng7	-0.059622925
-0.8156222	昨-昏｜tsa1-hng1 問｜mng7	-0.059622925
-1.4079832	問｜mng7 予｜hoo7	-0.059622925
-0.8251314	予｜hoo7 清-楚｜tshing1-tsho2	-0.059622925
-0.8251314	清-楚｜tshing1-tsho2 敢-是｜kam2-si7	-0.059622925
-2.0479958	你｜li2 有｜u7	-0.059622925
-1.1128389	敢｜kam2 有｜u7	-0.059622925
-1.1128389	物-件｜mih8-kiann7 有｜u7	-0.059622925
-1.4204282	<s> 伊｜i1	-0.14486757
-0.6050966	佮｜kah4 伊｜i1	-0.059622925
-0.8235186	𤆬｜tshua7 伊｜i1	-0.059622925
-1.7135055	伊｜i1 確-定｜khak4-ting7	-0.059622925
-1.395286	問｜mng7 一-下｜tsit8-e7	-0.059622925
-0.82052356	確-定｜khak4-ting7 一-下｜tsit8-e7	-0.059622925
-1.1159843	一-下｜tsit8-e7 彼｜hit4	-0.059622925
-0.8251314	彼｜hit4 件｜kiann7	-0.059622925
-1.0975963	處-理｜tshu2-li2 代-誌｜tai7-tsi3	-0.059622925
-0.8156222	件｜kiann7 代-誌｜tai7-tsi3	-0.059622925
-1.0975963	啥-物｜siann2-mih8 代-誌｜tai7-tsi3	-0.059622925
-1.0975963	你-的｜li2-e5 代-誌｜tai7-tsi3	-0.059622925
-1.395286	代-誌｜tai7-tsi3 無｜bo5	-0.059622925
-1.107027	紮｜tsap4 無｜bo5	-0.059622925
-2.0745692	你｜li2 朋-友｜ping5-iu2	-0.059622925
-2.0479958	你｜li2 講｜kong2	-0.059622925
-0.8235186	朋-友｜ping5-iu2 講｜kong2	-0.059622925
-1.1128389	遍｜pian3 講｜kong2	-0.059622925
-1.622428	按-呢｜an2-ne1 伊-認-為｜i1-jin7-ui5	-0.059622925
-0.82052356	伊-認-為｜i1-jin7-ui5 會-使｜e7-sai2	-0.059622925
-0.82052356	伊-講｜i1-kong2 會-使｜e7-sai2	-0.059622925
-1.1159843	會-使｜e7-sai2 未｜be7	-0.059622925
-2.5241926	<s> 伊-有｜i1-u7	-0.059622925
-0.8251314	伊-有｜i1-u7 按-算-欲｜an3-sng3-beh4	-0.059622925
-0.8251314	按-算-欲｜an3-sng3-beh4 過｜ke3	-0.059622925
-0.8251314	過｜ke3 來-無｜lai5-0bo5	-0.059622925
-1.7135055	伊｜i1 攏-講｜long2-kong2	-0.059622925
-0.82052356	攏-講｜long2-kong2 好-矣｜ho2-0ah4	-0.059622925
-0.82052356	毋-知-影｜m7-tsai1-iann2 好-矣｜ho2-0ah4	-0.059622925
-0.70022744	按-呢｜an2-ne1 ，	-0.39185348
-0.48503238	代-誌｜tai7-tsi3 ，	-0.39185348
-0.99177647	好-矣｜ho2-0ah4 ，	-0.059622925
-0.36978596	講-的｜kong2-e5 ，	-0.39185348
-0.99177647	遐｜hia5 ，	-0.059622925
-0.75714207	車｜tshia1 ，	-0.059622925
-0.75714207	過-來｜kue3-lai5 ，	-0.059622925
-0.75714207	沒｜but8 ，	-0.059622925
-0.99177647	啦｜0lah4 ，	-0.059622925
-0.75714207	遐｜hia1 ，	-0.059622925
-0.75714207	等-我｜tan2-0gua2 ，	-0.059622925
-0.75714207	頂-禮-拜｜ting2-le2-pai3 ，	-0.059622925
-2.5241926	<s> 伊-講｜i1-kong2	-0.059622925
-1.7974297	我｜gua2 共｜ka7	-0.059622925
-2.0023575	你｜li2 共｜ka7	-0.059622925
-2.0023575	你｜li2 講-的｜kong2-e5	-0.059622925
-1.107027	遍｜pian3 講-的｜kong2-e5	-0.059622925
-2.0023575	你｜li2 較｜khah4	-0.059622925
-1.107027	愛｜ai3 較｜khah4	-0.059622925
-1.1159843	較｜khah4 注-意｜tsu3-i3	-0.059622925
-0.8251314	注-意｜tsu3-i3 的｜e5	-0.059622925
-2.0745692	你｜li2 明-仔｜bin5-a2	-0.059622925
-0.8251314	明-仔｜bin5-a2 載-去｜tsai3-khi3	-0.059622925
-0.82052356	載-去｜tsai3-khi3 遐｜hia5	-0.059622925
-0.82052356	加-油-站｜ka1-iu5-tsam7 遐｜hia5	-0.059622925
-2.5241926	<s> 共-伊｜ka7-i1	-0.059622925
-0.8251314	共-伊｜ka7-i1 提-物-件｜theh8-mih8-kiann7	-0.059622925
-1.1159843	感-覺｜kam2-kak4 無-好｜bo5-ho2	-0.059622925
-1.8391818	我｜gua2 毋-知｜m7-tsai1	-0.059622925
-1.853147	<s> 這-馬｜tsit4-ma2	-0.059622925
-1.8241582	我｜gua2 這-馬｜tsit4-ma2	-0.39185348
-1.5962913	你｜li2 這-馬｜tsit4-ma2	-0.40143603
-2.4342105	<s> 啥-物｜siann2-mih8	-0.059622925
-1.5985825	按-呢｜an2-ne1 啥-物｜siann2-mih8	-0.059622925
-1.1159843	啥-物｜siann2-mih8 意-思｜i3-su3	-0.059622925
-2.1111863	<s> 咱｜lan2	-0.059622925
-2.4906473	<s> 頂｜ting2	-0.059622925
-1.7026634	伊｜i1 頂｜ting2	-0.059622925
-1.2775279	咱｜lan2 頂｜ting2	-0.059622925
-0.67712796	頂｜ting2 遍｜pian3	-0.25103435
-2.0023575	你｜li2 敢-有｜kam2-u7	-0.059622925
-0.8518369	伊｜i1 敢-有｜kam2-u7	-0.059622925
-1.48475	敢-有｜kam2-u7 答-應｜tap4-ing3	-0.059622925
-0.8235186	答-應｜tap4-ing3 矣｜0ah4	-0.059622925
-0.8235186	準-備｜tsun2-pi7 矣｜0ah4	-0.059622925
-1.1128389	公-司｜kong1-si1 矣｜0ah4	-0.059622925
-1.6831192	伊｜i1 攏｜long2	-0.059622925
-0.82052356	實-在｜sit8-tsai7 攏｜long2	-0.059622925
-1.1159843	攏｜long2 習-慣｜sip8-kuan3	-0.059622925
-0.8251314	習-慣｜sip8-kuan3 坐｜tse7	-0.059622925
-0.8251314	坐｜tse7 客｜kheh4	-0.059622925
-0.8251314	客｜kheh4 程｜thiann5	-0.059622925
-0.8251314	程｜thiann5 車｜tshia1	-0.059622925
-2.0745692	你｜li2 佇-樓-跤｜ti7-lau5-kha1	-0.059622925
-0.8251314	佇-樓-跤｜ti7-lau5-kha1 等-伊｜tan2-0i1	-0.059622925
-2.0745692	你｜li2 開-車｜khui1-tshia1	-0.059622925
-0.8251314	開-車｜khui1-tshia1 過-來｜kue3-lai5	-0.059622925
-1.6912384	<s> 佇｜ti7	-0.059622925
-1.6981514	我｜gua2 佇｜ti7	-0.059622925
-1.8472564	你｜li2 佇｜ti7	-0.059622925
-1.4109567	這-馬｜tsit4-ma2 佇｜ti7	-0.10655785
-0.8078668	講-你｜kong2-li2 佇｜ti7	-0.059622925
-1.8821938	佇｜ti7 路-口｜loo7-khau2	-0.059622925
-0.8251314	路-口｜loo7-khau2 等-你｜tan2-0li2	-0.059622925
-2.0745692	你｜li2 這-馬-講｜tsit4-ma2-kong2	-0.059622925
-0.82052356	這-馬-講｜tsit4-ma2-kong2 啥｜siann2	-0.059622925
-0.82052356	創｜tshong3 啥｜siann2	-0.11489829
-1.7974297	我｜gua2 聽-無｜thiann1-bo5	-0.059622925
-1.107027	攏｜long2 聽-無｜thiann1-bo5	-0.059622925
-1.8391818	我｜gua2 毋-知-影｜m7-tsai1-iann2	-0.059622925
-1.1159843	好-矣｜ho2-0ah4 沒｜but8	-0.059622925
-1.1159843	一-下｜tsit8-e7 好-無｜ho2-0bo5	-0.059622925
-1.2253978	代-誌｜tai7-tsi3 ？	-0.059622925
-0.9801931	無｜bo5 ？	-0.059622925
-0.9801931	啥｜siann2 ？	-0.11489829
-0.7503561	好-無｜ho2-0bo5 ？	-0.059622925
-0.20274186	好｜ho2 ？	-0.39185348
-0.7503561	按-怎｜an3-tsuann2 ？	-0.059622925
-0.83094203	佇-佗-位｜ti7-to2-ui7 ？	-0.33674705
-0.7323074	佗｜to2 ？	-0.6791697
-0.9801931	欲-出-門｜beh4-tshut4-mng5 ？	-0.059622925
-0.7503561	猶-未｜a2-be7 ？	-0.39185348
-0.9801931	啥-人｜siann2-lang5 ？	-0.059622925
-0.7503561	做-伙｜tso3-hue2 ？	-0.059622925
-0.7323074	佗-位｜to2-ui7 ？	-0.23983702
-1.7135055	伊｜i1 按-呢｜an2-ni1	-0.059622925
-2.5241926	<s> 袂-使｜be7-sai2	-0.059622925
-0.82052356	袂-使｜be7-sai2 啦｜0lah4	-0.059622925
-0.82052356	車-頂｜tshia1-ting2 啦｜0lah4	-0.059622925
-2.0745692	你｜li2 等-咧｜tan2-0leh4	-0.059622925
-0.8251314	等-咧｜tan2-0leh4 去｜khi3	-0.059622925
-0.8251314	去｜khi3 遐｜hia1	-0.059622925
-1.8606497	<s> 敢｜kam2	-0.059622925
-1.107027	敢｜kam2 好｜ho2	-0.059622925
-1.107027	聯-絡｜lian5-lok8 好｜ho2	-0.059622925
-1.8391818	我｜gua2 昨-昏｜tsa1-hng1	-0.059622925
-0.5101928	問｜mng7 你-的｜li2-e5	-0.059622925
-2.0745692	你｜li2 問-了｜mng7-liau2	-0.059622925
-0.8251314	問-了｜mng7-liau2 按-怎｜an3-tsuann2	-0.059622925
-1.8821938	佇｜ti7 加-油-站｜ka1-iu5-tsam7	-0.059622925
-1.1159843	遐｜hia5 等-我｜tan2-0gua2	-0.059622925
-1.8391818	我｜gua2 連-鞭｜liam5-mi1	-0.059622925
-2.0023575	你｜li2 到｜kau3	-0.39185348
-0.82052356	連-鞭｜liam5-mi1 到｜kau3	-0.059622925
-1.48475	敢-有｜kam2-u7 講-好｜kong2-ho2	-0.059622925
-1.48475	敢-有｜kam2-u7 𤆬｜tshua7	-0.059622925
-1.7135055	伊｜i1 去-看｜khi3-khuann3	-0.059622925
-0.8251314	去-看｜khi3-khuann3 過-矣｜kue3-0ah4	-0.059622925
-1.8391818	我｜gua2 實-在｜sit8-tsai7	-0.059622925
-2.0745692	你｜li2 電-話｜tian7-ue7	-0.059622925
-0.82052356	電-話｜tian7-ue7 中｜tiong3	-0.059622925
-0.82052356	台｜tai5 中｜tiong3	-0.059622925
-1.1159843	中｜tiong3 莫-講｜mai3-kong2	-0.059622925
-0.8251314	莫-講｜mai3-kong2 這｜tsit4	-0.059622925
-2.5241926	<s> 𪜶｜in1	-0.059622925
-0.8251314	𪜶｜in1 老-大-的｜lau2-tua7-0e5	-0.059622925
-1.8391818	我｜gua2 已-經｜i2-king1	-0.059622925
-0.8251314	已-經｜i2-king1 出-門-矣｜tshut4-mng5-0ah4	-0.059622925
-2.5241926	<s> 好-啦｜ho2-0lah4	-0.059622925
-1.853147	<s> 佇-佗-位｜ti7-to2-ui7	-0.059622925
-1.3356546	你｜li2 佇-佗-位｜ti7-to2-ui7	-0.10040603
-1.4774328	這-馬｜tsit4-ma2 佇-佗-位｜ti7-to2-ui7	-0.059622925
-2.5241926	<s> 我-欲｜gua2-beh4	-0.059622925
-0.8251314	我-欲｜gua2-beh4 予-伊｜hoo7-0i1	-0.059622925
-0.8251314	予-伊｜hoo7-0i1 好-看｜ho2-khuann3	-0.059622925
-2.5241926	<s> 五-千｜goo7-tshing1	-0.059622925
-1.2821314	咱｜lan2 講-話｜kong2-ue7	-0.059622925
-1.269062	咱｜lan2 愛｜ai3	-0.059622925
-0.82052356	講-話｜kong2-ue7 愛｜ai3	-0.059622925
-1.1159843	較｜khah4 細-膩-咧｜se3-ji7-0leh4	-0.059622925
-1.1159843	愛｜ai3 準-備｜tsun2-pi7	-0.059622925
-1.7135055	伊｜i1 真-認-真｜tsin1-jin7-tsin1	-0.059622925
-0.82052356	真-認-真｜tsin1-jin7-tsin1 咧｜leh4	-0.059622925
-1.107027	厝｜tshu3 咧｜leh4	-0.059622925
-1.1159843	咧｜leh4 做-代-誌｜tso3-tai7-tsi3	-0.059622925
-1.8391818	我｜gua2 頂-禮-拜｜ting2-le2-pai3	-0.059622925
-1.1159843	你-的｜li2-e5 問-題｜bun7-te5	-0.059622925
-1.8606497	<s> 物-件｜mih8-kiann7	-0.059622925
-1.1159843	物-件｜mih8-kiann7 提｜theh8	-0.059622925
-0.8251314	提｜theh8 著-矣｜toh8-0ah4	-0.059622925
-0.9248283	佇｜ti7 佗｜to2	-0.27649727
-0.7981927	人-佇｜lang5-ti7 佗｜to2	-0.23983702
-0.60540426	欲-去｜beh4-khi3 佗｜to2	-0.39185348
-2.4342105	<s> 紮｜tsap4	-0.059622925
-1.269062	有｜u7 紮｜tsap4	-0.059622925
-1.0447751	佇｜ti7 佗｜toh4	-0.39185348
-1.1159843	紮｜tsap4 幾-件｜kui2-kiann7	-0.059622925
-1.2821314	有｜u7 陪｜pue5	-0.059622925
-2.0745692	你｜li2 來｜lai5	-0.059622925
-2.0479958	你｜li2 人-佇｜lang5-ti7	-0.25103435
-1.4774328	這-馬｜tsit4-ma2 人-佇｜lang5-ti7	-0.059622925
-1.2775279	恁｜lin2 人-佇｜lang5-ti7	-0.059622925
-2.4342105	<s> 當-時｜tong1-si5	-0.059622925
-2.0023575	你｜li2 當-時｜tong1-si5	-0.059622925
-0.38650247	當-時｜tong1-si5 欲-出-門｜beh4-tshut4-mng5	-0.059622925
-1.1159843	到｜kau3 猶-未｜a2-be7	-0.39185348
-1.4785407	佮｜kah4 啥-人｜siann2-lang5	-0.059622925
-0.82052356	等｜tan2 啥-人｜siann2-lang5	-0.059622925
-1.1159843	啥-人｜siann2-lang5 做-伙｜tso3-hue2	-0.059622925
-1.0447751	佇｜ti7 公-司｜kong1-si1	-0.059622925
-1.1159843	公-司｜kong1-si1 呀	-0.059622925
-1.8821938	佇｜ti7 車-頂｜tshia1-ting2	-0.059622925
-2.5241926	<s> 欲｜beh4	-0.059622925
-0.8251314	欲｜beh4 到-矣｜kau3-0ah4	-0.059622925
-1.8821938	佇｜ti7 創｜tshong3	-0.11489829
-2.5241926	<s> 等｜tan2	-0.059622925
-1.8821938	佇｜ti7 上-班｜siang7-pan1	-0.059622925
-2.5241926	<s> 佇-厝｜ti7-tshu3	-0.059622925
-2.4342105	<s> 佇-咧｜ti7-0leh4	-0.059622925
-1.4640937	這-馬｜tsit4-ma2 佇-咧｜ti7-0leh4	-0.059622925
-0.38650247	佇-咧｜ti7-0leh4 厝｜tshu3	-0.059622925
-2.5241926	<s> 等-一-下｜tan2-0tsit8-e7	-0.059622925
-1.8472564	你｜li2 欲-去｜beh4-khi3	-0.059622925
-0.8078668	等-一-下｜tan2-0tsit8-e7 欲-去｜beh4-khi3	-0.059622925
-1.2344074	恁｜lin2 欲-去｜beh4-khi3	-0.059622925
-0.20972203	紲-落-來｜sua3-0loh8-lai5 欲-去｜beh4-khi3	-0.39185348
-0.8078668	結-束-了｜kiat4-sok4-liau2 欲-去｜beh4-khi3	-0.059622925
-1.3937129	人-佇｜lang5-ti7 佗-位｜to2-ui7	-0.059622925
-0.8953625	欲-去｜beh4-khi3 佗-位｜to2-ui7	-0.39185348
-0.8235186	伊-佇｜i1-ti7 佗-位｜to2-ui7	-0.059622925
-1.8606497	<s> 啊｜ah4	-0.39185348
-1.4640937	敢-有｜kam2-u7 聯-絡｜lian5-lok8	-0.059622925
-0.82052356	一-个｜tsit8-e5 聯-絡｜lian5-lok8	-0.059622925
-2.5241926	<s> 伊-佇｜i1-ti7	-0.059622925
-1.8821938	佇｜ti7 台｜tai5	-0.059622925
-1.1159843	中｜tiong3 阮｜gun2	-0.059622925
-0.8251314	阮｜gun2 客-戶｜kheh4-hoo7	-0.059622925
-0.8251314	客-戶｜kheh4-hoo7 遮｜tsia1	-0.059622925
-0.8251314	遮｜tsia1 。	-0.059622925
-2.1111863	<s> 恁｜lin2	-0.059622925
-2.4342105	<s> 紲-落-來｜sua3-0loh8-lai5	-0.059622925
-0.82052356	人｜lang5 紲-落-來｜sua3-0loh8-lai5	-0.059622925
-1.2821314	恁｜lin2 人｜lang5	-0.059622925
-1.2930098	佇-咧｜ti7-0leh4 …	-0.059622925
-2.5241926	<s> 結-束-了｜kiat4-sok4-liau2	-0.059622925
-1.2930098	當-時｜tong1-si5 欲-來｜beh4-lai5	-0.059622925
-2.0745692	你｜li2 講-你｜kong2-li2	-0.059622925
-1.4951515	佮｜kah4 另-外｜ling7-gua7	-0.059622925
-0.8251314	另-外｜ling7-gua7 一-个｜tsit8-e5	-0.059622925

\3-grams:
-0.6222405	敢-是｜kam2-si7 按-呢｜an2-ne1 </s>
-0.43792704	袂｜be7 妥-當｜tho3-tong3 </s>
-0.52119434	代-誌｜tai7-tsi3 無｜bo5 </s>
-0.52119434	伊-講｜i1-kong2 會-使｜e7-sai2 </s>
-0.43792704	會-使｜e7-sai2 未｜be7 </s>
-0.43792704	過｜ke3 來-無｜lai5-0bo5 </s>
-0.030871464	按-呢｜an2-ne1 ， </s>
-0.030871464	代-誌｜tai7-tsi3 ， </s>
-0.06928262	好-矣｜ho2-0ah4 ， </s>
-0.030871464	講-的｜kong2-e5 ， </s>
-0.06928262	遐｜hia5 ， </s>
-0.06928262	車｜tshia1 ， </s>
-0.06928262	過-來｜kue3-lai5 ， </s>
-0.06928262	沒｜but8 ， </s>
-0.06928262	啦｜0lah4 ， </s>
-0.06928262	遐｜hia1 ， </s>
-0.06928262	等-我｜tan2-0gua2 ， </s>
-0.06928262	頂-禮-拜｜ting2-le2-pai3 ， </s>
-0.43792704	注-意｜tsu3-i3 的｜e5 </s>
-0.43792704	共-伊｜ka7-i1 提-物-件｜theh8-mih8-kiann7 </s>
-0.43792704	感-覺｜kam2-kak4 無-好｜bo5-ho2 </s>
-0.43792704	啥-物｜siann2-mih8 意-思｜i3-su3 </s>
-0.38702506	答-應｜tap4-ing3 矣｜0ah4 </s>
-0.38702506	準-備｜tsun2-pi7 矣｜0ah4 </s>
-0.38702506	公-司｜kong1-si1 矣｜0ah4 </s>
-0.43792704	佇-樓-跤｜ti7-lau5-kha1 等-伊｜tan2-0i1 </s>
-0.43792704	路-口｜loo7-khau2 等-你｜tan2-0li2 </s>
-0.14759788	我｜gua2 聽-無｜thiann1-bo5 </s>
-0.14759788	攏｜long2 聽-無｜thiann1-bo5 </s>
-0.06354267	代-誌｜tai7-tsi3 ？ </s>
-0.06354267	無｜bo5 ？ </s>
-0.055441093	啥｜siann2 ？ </s>
-0.06354267	好-無｜ho2-0bo5 ？ </s>
-0.028417258	好｜ho2 ？ </s>
-0.06354267	按-怎｜an3-tsuann2 ？ </s>
-0.032408636	佇-佗-位｜ti7-to2-ui7 ？ </s>
-0.014432151	佗｜to2 ？ </s>
-0.06354267	欲-出-門｜beh4-tshut4-mng5 ？ </s>
-0.028417258	猶-未｜a2-be7 ？ </s>
-0.06354267	啥-人｜siann2-lang5 ？ </s>
-0.06354267	做-伙｜tso3-hue2 ？ </s>
-0.04090333	佗-位｜to2-ui7 ？ </s>
-0.52119434	袂-使｜be7-sai2 啦｜0lah4 </s>
-0.52119434	連-鞭｜liam5-mi1 到｜kau3 </s>
-0.43792704	敢-有｜kam2-u7 講-好｜kong2-ho2 </s>
-0.43792704	去-看｜khi3-khuann3 過-矣｜kue3-0ah4 </s>
-0.43792704	莫-講｜mai3-kong2 這｜tsit4 </s>
-0.43792704	𪜶｜in1 老-大-的｜lau2-tua7-0e5 </s>
-0.43792704	已-經｜i2-king1 出-門-矣｜tshut4-mng5-0ah4 </s>
-0.43792704	<s> 好-啦｜ho2-0lah4 </s>
-0.4455862	<s> 佇-佗-位｜ti7-to2-ui7 </s>
-0.52289426	你｜li2 佇-佗-位｜ti7-to2-ui7 </s>
-0.43792704	予-伊｜hoo7-0i1 好-看｜ho2-khuann3 </s>
-0.43792704	<s> 五-千｜goo7-tshing1 </s>
-0.43792704	較｜khah4 細-膩-咧｜se3-ji7-0leh4 </s>
-0.52119434	厝｜tshu3 咧｜leh4 </s>
-0.43792704	咧｜leh4 做-代-誌｜tso3-tai7-tsi3 </s>
-0.43792704	你-的｜li2-e5 問-題｜bun7-te5 </s>
-0.43792704	提｜theh8 著-矣｜toh8-0ah4 </s>
-0.98530936	佇｜ti7 佗｜to2 </s>
-0.152166	佇｜ti7 佗｜toh4 </s>
-0.43792704	紮｜tsap4 幾-件｜kui2-kiann7 </s>
-0.43792704	你｜li2 來｜lai5 </s>
-0.62520427	當-時｜tong1-si5 欲-出-門｜beh4-tshut4-mng5 </s>
-0.43792704	公-司｜kong1-si1 呀 </s>
-0.43792704	欲｜beh4 到-矣｜kau3-0ah4 </s>
-0.43792704	佇｜ti7 上-班｜siang7-pan1 </s>
-0.43792704	<s> 佇-厝｜ti7-tshu3 </s>
-0.62520427	佇-咧｜ti7-0leh4 厝｜tshu3 </s>
-0.443582	欲-去｜beh4-khi3 佗-位｜to2-ui7 </s>
-0.52119434	敢-有｜kam2-u7 聯-絡｜lian5-lok8 </s>
-0.43792704	遮｜tsia1 。 </s>
-0.43792704	佇-咧｜ti7-0leh4 … </s>
-0.43792704	當-時｜tong1-si5 欲-來｜beh4-lai5 </s>
-1.1940653	講｜kong2 按-呢｜an2-ne1 我｜gua2
-0.7088399	這-馬-講｜tsit4-ma2-kong2 啥｜siann2 我｜gua2
-1.0681024	<s> 我｜gua2 感-覺｜kam2-kak4
-0.6710665	按-呢｜an2-ne1 我｜gua2 感-覺｜kam2-kak4
-0.85833025	我｜gua2 感-覺｜kam2-kak4 你｜li2
-0.69312465	我｜gua2 共｜ka7 你｜li2
-0.5745318	我｜gua2 毋-知｜m7-tsai1 你｜li2
-0.5745318	有｜u7 陪｜pue5 你｜li2
-0.1813727	<s> 啊｜ah4 你｜li2
-0.8517946	感-覺｜kam2-kak4 你｜li2 按-呢｜an2-ne1
-0.578465	清-楚｜tshing1-tsho2 敢-是｜kam2-si7 按-呢｜an2-ne1
-0.49958977	你｜li2 講｜kong2 按-呢｜an2-ne1
-0.49958977	朋-友｜ping5-iu2 講｜kong2 按-呢｜an2-ne1
-0.49958977	遍｜pian3 講｜kong2 按-呢｜an2-ne1
-0.9511698	遍｜pian3 講-的｜kong2-e5 按-呢｜an2-ne1
-1.5025444	你｜li2 這-馬｜tsit4-ma2 按-呢｜an2-ne1
-0.8231911	你｜li2 按-呢｜an2-ne1 處-理｜tshu2-li2
-0.58492464	伊｜i1 按-呢｜an2-ni1 處-理｜tshu2-li2
-0.70991886	按-呢｜an2-ne1 處-理｜tshu2-li2 袂｜be7
-0.5872535	處-理｜tshu2-li2 袂｜be7 妥-當｜tho3-tong3
-2.0318675	<s> 你｜li2 要｜iau3
-1.8761785	<s> 你｜li2 佮｜kah4
-0.578465	你｜li2 要｜iau3 佮｜kah4
-0.7469232	你｜li2 有｜u7 佮｜kah4
-1.0088663	你｜li2 敢-有｜kam2-u7 佮｜kah4
-0.8002142	要｜iau3 佮｜kah4 問｜mng7
-0.70353806	你｜li2 共｜ka7 問｜mng7
-0.58243406	我｜gua2 昨-昏｜tsa1-hng1 問｜mng7
-0.7895435	佮｜kah4 問｜mng7 予｜hoo7
-0.5872535	問｜mng7 予｜hoo7 清-楚｜tshing1-tsho2
-0.5872535	予｜hoo7 清-楚｜tshing1-tsho2 敢-是｜kam2-si7
-2.0150194	<s> 你｜li2 有｜u7
-0.8815168	<s> 敢｜kam2 有｜u7
-0.8815168	<s> 物-件｜mih8-kiann7 有｜u7
-0.1579781	<s> 佮｜kah4 伊｜i1
-0.46256948	有｜u7 佮｜kah4 伊｜i1
-0.5864397	敢-有｜kam2-u7 𤆬｜tshua7 伊｜i1
-1.2246044	佮｜kah4 伊｜i1 確-定｜khak4-ting7
-0.78684783	共｜ka7 問｜mng7 一-下｜tsit8-e7
-0.58492464	伊｜i1 確-定｜khak4-ting7 一-下｜tsit8-e7
-0.70991886	確-定｜khak4-ting7 一-下｜tsit8-e7 彼｜hit4
-0.5872535	一-下｜tsit8-e7 彼｜hit4 件｜kiann7
-0.70353806	按-呢｜an2-ni1 處-理｜tshu2-li2 代-誌｜tai7-tsi3
-0.58243406	彼｜hit4 件｜kiann7 代-誌｜tai7-tsi3
-0.70353806	<s> 啥-物｜siann2-mih8 代-誌｜tai7-tsi3
-0.8736496	問｜mng7 你-的｜li2-e5 代-誌｜tai7-tsi3
-0.78684783	件｜kiann7 代-誌｜tai7-tsi3 無｜bo5
-0.70683265	有｜u7 紮｜tsap4 無｜bo5
-2.0318675	<s> 你｜li2 朋-友｜ping5-iu2
-2.0150194	<s> 你｜li2 講｜kong2
-0.5864397	你｜li2 朋-友｜ping5-iu2 講｜kong2
-1.0653806	頂｜ting2 遍｜pian3 講｜kong2
-1.1968539	講｜kong2 按-呢｜an2-ne1 伊-認-為｜i1-jin7-ui5
-0.58492464	按-呢｜an2-ne1 伊-認-為｜i1-jin7-ui5 會-使｜e7-sai2
-0.58492464	<s> 伊-講｜i1-kong2 會-使｜e7-sai2
-0.70991886	伊-認-為｜i1-jin7-ui5 會-使｜e7-sai2 未｜be7
-0.5872535	<s> 伊-有｜i1-u7 按-算-欲｜an3-sng3-beh4
-0.5872535	伊-有｜i1-u7 按-算-欲｜an3-sng3-beh4 過｜ke3
-0.5872535	按-算-欲｜an3-sng3-beh4 過｜ke3 來-無｜lai5-0bo5
-1.2246044	佮｜kah4 伊｜i1 攏-講｜long2-kong2
-0.58492464	伊｜i1 攏-講｜long2-kong2 好-矣｜ho2-0ah4
-0.58492464	我｜gua2 毋-知-影｜m7-tsai1-iann2 好-矣｜ho2-0ah4
-0.6643417	講｜kong2 按-呢｜an2-ne1 ，
-0.51982075	講-的｜kong2-e5 按-呢｜an2-ne1 ，
-0.383411	處-理｜tshu2-li2 代-誌｜tai7-tsi3 ，
-0.383411	你-的｜li2-e5 代-誌｜tai7-tsi3 ，
-0.6633037	攏-講｜long2-kong2 好-矣｜ho2-0ah4 ，
-0.30075112	你｜li2 講-的｜kong2-e5 ，
-0.36033303	遍｜pian3 講-的｜kong2-e5 ，
-0.6633037	載-去｜tsai3-khi3 遐｜hia5 ，
-0.551653	程｜thiann5 車｜tshia1 ，
-0.551653	開-車｜khui1-tshia1 過-來｜kue3-lai5 ，
-0.551653	好-矣｜ho2-0ah4 沒｜but8 ，
-0.6633037	車-頂｜tshia1-ting2 啦｜0lah4 ，
-0.551653	去｜khi3 遐｜hia1 ，
-0.551653	遐｜hia5 等-我｜tan2-0gua2 ，
-0.551653	我｜gua2 頂-禮-拜｜ting2-le2-pai3 ，
-1.6646774	<s> 我｜gua2 共｜ka7
-1.9852147	<s> 你｜li2 共｜ka7
-0.86343837	共｜ka7 你｜li2 講-的｜kong2-e5
-0.3564651	頂｜ting2 遍｜pian3 講-的｜kong2-e5
-1.9852147	<s> 你｜li2 較｜khah4
-0.70683265	講-話｜kong2-ue7 愛｜ai3 較｜khah4
-0.70991886	你｜li2 較｜khah4 注-意｜tsu3-i3
-0.5872535	較｜khah4 注-意｜tsu3-i3 的｜e5
-2.0318675	<s> 你｜li2 明-仔｜bin5-a2
-0.5872535	你｜li2 明-仔｜bin5-a2 載-去｜tsai3-khi3
-0.58492464	明-仔｜bin5-a2 載-去｜tsai3-khi3 遐｜hia5
-0.58492464	佇｜ti7 加-油-站｜ka1-iu5-tsam7 遐｜hia5
-0.5872535	<s> 共-伊｜ka7-i1 提-物-件｜theh8-mih8-kiann7
-0.8831235	我｜gua2 感-覺｜kam2-kak4 無-好｜bo5-ho2
-1.6882612	<s> 我｜gua2 毋-知｜m7-tsai1
-1.0148283	<s> 我｜gua2 這-馬｜tsit4-ma2
-0.9301391	<s> 你｜li2 這-馬｜tsit4-ma2
-0.82285535	毋-知｜m7-tsai1 你｜li2 這-馬｜tsit4-ma2
-1.0643702	啊｜ah4 你｜li2 這-馬｜tsit4-ma2
-0.8231911	這-馬｜tsit4-ma2 按-呢｜an2-ne1 啥-物｜siann2-mih8
-0.70991886	按-呢｜an2-ne1 啥-物｜siann2-mih8 意-思｜i3-su3
-1.4487222	<s> 伊｜i1 頂｜ting2
-1.0517356	<s> 咱｜lan2 頂｜ting2
-0.50637966	<s> 頂｜ting2 遍｜pian3
-0.50637966	伊｜i1 頂｜ting2 遍｜pian3
-0.50637966	咱｜lan2 頂｜ting2 遍｜pian3
-1.4088624	<s> 你｜li2 敢-有｜kam2-u7
-0.52450323	<s> 伊｜i1 敢-有｜kam2-u7
-0.7815328	佮｜kah4 伊｜i1 敢-有｜kam2-u7
-1.1468414	伊｜i1 敢-有｜kam2-u7 答-應｜tap4-ing3
-0.5864397	敢-有｜kam2-u7 答-應｜tap4-ing3 矣｜0ah4
-0.5864397	愛｜ai3 準-備｜tsun2-pi7 矣｜0ah4
-0.8815168	佇｜ti7 公-司｜kong1-si1 矣｜0ah4
-1.4408144	<s> 伊｜i1 攏｜long2
-0.58492464	我｜gua2 實-在｜sit8-tsai7 攏｜long2
-0.70991886	伊｜i1 攏｜long2 習-慣｜sip8-kuan3
-0.5872535	攏｜long2 習-慣｜sip8-kuan3 坐｜tse7
-0.5872535	習-慣｜sip8-kuan3 坐｜tse7 客｜kheh4
-0.5872535	坐｜tse7 客｜kheh4 程｜thiann5
-0.5872535	客｜kheh4 程｜thiann5 車｜tshia1
-2.0318675	<s> 你｜li2 佇-樓-跤｜ti7-lau5-kha1
-0.5872535	你｜li2 佇-樓-跤｜ti7-lau5-kha1 等-伊｜tan2-0i1
-2.0318675	<s> 你｜li2 開-車｜khui1-tshia1
-0.5872535	你｜li2 開-車｜khui1-tshia1 過-來｜kue3-lai5
-1.1837692	<s> 我｜gua2 佇｜ti7
-1.5424199	<s> 你｜li2 佇｜ti7
-0.2199888	你｜li2 這-馬｜tsit4-ma2 佇｜ti7
-0.578465	你｜li2 講-你｜kong2-li2 佇｜ti7
-1.2660522	我｜gua2 佇｜ti7 路-口｜loo7-khau2
-0.5872535	佇｜ti7 路-口｜loo7-khau2 等-你｜tan2-0li2
-2.0318675	<s> 你｜li2 這-馬-講｜tsit4-ma2-kong2
-0.58492464	你｜li2 這-馬-講｜tsit4-ma2-kong2 啥｜siann2
-0.4578086	佇｜ti7 創｜tshong3 啥｜siann2
-0.8471685	啥｜siann2 我｜gua2 聽-無｜thiann1-bo5
-0.70683265	實-在｜sit8-tsai7 攏｜long2 聽-無｜thiann1-bo5
-1.6882612	<s> 我｜gua2 毋-知-影｜m7-tsai1-iann2
-0.70991886	毋-知-影｜m7-tsai1-iann2 好-矣｜ho2-0ah4 沒｜but8
-0.70991886	問｜mng7 一-下｜tsit8-e7 好-無｜ho2-0bo5
-0.74434793	啥-物｜siann2-mih8 代-誌｜tai7-tsi3 ？
-0.6585267	紮｜tsap4 無｜bo5 ？
-0.50474095	創｜tshong3 啥｜siann2 ？
-0.5479543	一-下｜tsit8-e7 好-無｜ho2-0bo5 ？
-0.1708014	敢｜kam2 好｜ho2 ？
-0.1708014	聯-絡｜lian5-lok8 好｜ho2 ？
-0.5479543	問-了｜mng7-liau2 按-怎｜an3-tsuann2 ？
-0.7148988	<s> 佇-佗-位｜ti7-to2-ui7 ？
-0.5354066	你｜li2 佇-佗-位｜ti7-to2-ui7 ？
-0.5901728	這-馬｜tsit4-ma2 佇-佗-位｜ti7-to2-ui7 ？
-0.26157165	佇｜ti7 佗｜to2 ？
-0.27493152	人-佇｜lang5-ti7 佗｜to2 ？
-0.1742565	欲-去｜beh4-khi3 佗｜to2 ？
-0.8086058	當-時｜tong1-si5 欲-出-門｜beh4-tshut4-mng5 ？
-0.17624508	到｜kau3 猶-未｜a2-be7 ？
-0.6585267	等｜tan2 啥-人｜siann2-lang5 ？
-0.5479543	啥-人｜siann2-lang5 做-伙｜tso3-hue2 ？
-0.5379891	人-佇｜lang5-ti7 佗-位｜to2-ui7 ？
-0.42909324	欲-去｜beh4-khi3 佗-位｜to2-ui7 ？
-0.5379891	伊-佇｜i1-ti7 佗-位｜to2-ui7 ？
-1.453018	<s> 伊｜i1 按-呢｜an2-ni1
-0.58492464	<s> 袂-使｜be7-sai2 啦｜0lah4
-0.58492464	佇｜ti7 車-頂｜tshia1-ting2 啦｜0lah4
-2.0318675	<s> 你｜li2 等-咧｜tan2-0leh4
-0.5872535	你｜li2 等-咧｜tan2-0leh4 去｜khi3
-0.5872535	等-咧｜tan2-0leh4 去｜khi3 遐｜hia1
-0.8785329	<s> 敢｜kam2 好｜ho2
-0.70683265	一-个｜tsit8-e5 聯-絡｜lian5-lok8 好｜ho2
-1.6882612	<s> 我｜gua2 昨-昏｜tsa1-hng1
-0.4006109	<s> 問｜mng7 你-的｜li2-e5
-0.4006109	昨-昏｜tsa1-hng1 問｜mng7 你-的｜li2-e5
-2.0318675	<s> 你｜li2 問-了｜mng7-liau2
-0.5872535	你｜li2 問-了｜mng7-liau2 按-怎｜an3-tsuann2
-1.2660522	你｜li2 佇｜ti7 加-油-站｜ka1-iu5-tsam7
-0.70991886	加-油-站｜ka1-iu5-tsam7 遐｜hia5 等-我｜tan2-0gua2
-1.6882612	<s> 我｜gua2 連-鞭｜liam5-mi1
-1.4088624	<s> 你｜li2 到｜kau3
-0.58492464	我｜gua2 連-鞭｜liam5-mi1 到｜kau3
-1.1468414	伊｜i1 敢-有｜kam2-u7 講-好｜kong2-ho2
-1.032961	你｜li2 敢-有｜kam2-u7 𤆬｜tshua7
-0.83821166	𤆬｜tshua7 伊｜i1 去-看｜khi3-khuann3
-0.5872535	伊｜i1 去-看｜khi3-khuann3 過-矣｜kue3-0ah4
-1.6882612	<s> 我｜gua2 實-在｜sit8-tsai7
-2.0318675	<s> 你｜li2 電-話｜tian7-ue7
-0.58492464	你｜li2 電-話｜tian7-ue7 中｜tiong3
-0.58492464	佇｜ti7 台｜tai5 中｜tiong3
-0.70991886	電-話｜tian7-ue7 中｜tiong3 莫-講｜mai3-kong2
-0.5872535	中｜tiong3 莫-講｜mai3-kong2 這｜tsit4
-0.5872535	<s> 𪜶｜in1 老-大-的｜lau2-tua7-0e5
-1.6882612	<s> 我｜gua2 已-經｜i2-king1
-0.5872535	我｜gua2 已-經｜i2-king1 出-門-矣｜tshut4-mng5-0ah4
-1.2942947	<s> 你｜li2 佇-佗-位｜ti7-to2-ui7
-0.9813581	啊｜ah4 你｜li2 佇-佗-位｜ti7-to2-ui7
-1.0306939	<s> 這-馬｜tsit4-ma2 佇-佗-位｜ti7-to2-ui7
-0.5872535	<s> 我-欲｜gua2-beh4 予-伊｜hoo7-0i1
-0.5872535	我-欲｜gua2-beh4 予-伊｜hoo7-0i1 好-看｜ho2-khuann3
-1.0541155	<s> 咱｜lan2 講-話｜kong2-ue7
-1.0473272	<s> 咱｜lan2 愛｜ai3
-0.58492464	咱｜lan2 講-話｜kong2-ue7 愛｜ai3
-0.70991886	愛｜ai3 較｜khah4 細-膩-咧｜se3-ji7-0leh4
-0.70991886	咱｜lan2 愛｜ai3 準-備｜tsun2-pi7
-1.453018	<s> 伊｜i1 真-認-真｜tsin1-jin7-tsin1
-0.58492464	伊｜i1 真-認-真｜tsin1-jin7-tsin1 咧｜leh4
-0.8785329	佇-咧｜ti7-0leh4 厝｜tshu3 咧｜leh4
-0.70991886	真-認-真｜tsin1-jin7-tsin1 咧｜leh4 做-代-誌｜tso3-tai7-tsi3
-1.6882612	<s> 我｜gua2 頂-禮-拜｜ting2-le2-pai3
-0.8831235	問｜mng7 你-的｜li2-e5 問-題｜bun7-te5
-0.8831235	<s> 物-件｜mih8-kiann7 提｜theh8
-0.5872535	物-件｜mih8-kiann7 提｜theh8 著-矣｜toh8-0ah4
-0.8673719	<s> 佇｜ti7 佗｜to2
-0.83444387	你｜li2 佇｜ti7 佗｜to2
-0.7152237	這-馬｜tsit4-ma2 佇｜ti7 佗｜to2
-0.6346525	講-你｜kong2-li2 佇｜ti7 佗｜to2
-0.31379265	你｜li2 人-佇｜lang5-ti7 佗｜to2
-0.57346547	這-馬｜tsit4-ma2 人-佇｜lang5-ti7 佗｜to2
-0.57346547	恁｜lin2 人-佇｜lang5-ti7 佗｜to2
-0.46276265	你｜li2 欲-去｜beh4-khi3 佗｜to2
-0.46276265	恁｜lin2 欲-去｜beh4-khi3 佗｜to2
-0.7564778	物-件｜mih8-kiann7 有｜u7 紮｜tsap4
-0.91580844	你｜li2 佇｜ti7 佗｜toh4
-1.0510821	這-馬｜tsit4-ma2 佇｜ti7 佗｜toh4
-0.70991886	<s> 紮｜tsap4 幾-件｜kui2-kiann7
-0.7599392	敢｜kam2 有｜u7 陪｜pue5
-0.86767066	陪｜pue5 你｜li2 來｜lai5
-1.6013473	<s> 你｜li2 人-佇｜lang5-ti7
-1.0306939	<s> 這-馬｜tsit4-ma2 人-佇｜lang5-ti7
-1.0517356	<s> 恁｜lin2 人-佇｜lang5-ti7
-1.4088624	<s> 你｜li2 當-時｜tong1-si5
-0.31311992	<s> 當-時｜tong1-si5 欲-出-門｜beh4-tshut4-mng5
-0.3745507	你｜li2 當-時｜tong1-si5 欲-出-門｜beh4-tshut4-mng5
-0.20383394	你｜li2 到｜kau3 猶-未｜a2-be7
-0.8034304	你｜li2 佮｜kah4 啥-人｜siann2-lang5
-0.58492464	<s> 等｜tan2 啥-人｜siann2-lang5
-0.70991886	佮｜kah4 啥-人｜siann2-lang5 做-伙｜tso3-hue2
-0.95584285	<s> 佇｜ti7 公-司｜kong1-si1
-0.91580844	我｜gua2 佇｜ti7 公-司｜kong1-si1
-0.8831235	佇｜ti7 公-司｜kong1-si1 呀
-1.361475	<s> 佇｜ti7 車-頂｜tshia1-ting2
-0.5872535	<s> 欲｜beh4 到-矣｜kau3-0ah4
-0.95905143	這-馬｜tsit4-ma2 佇｜ti7 創｜tshong3
-1.361475	<s> 佇｜ti7 上-班｜siang7-pan1
-0.21589084	我｜gua2 這-馬｜tsit4-ma2 佇-咧｜ti7-0leh4
-0.31311992	<s> 佇-咧｜ti7-0leh4 厝｜tshu3
-0.3745507	這-馬｜tsit4-ma2 佇-咧｜ti7-0leh4 厝｜tshu3
-1.8761785	<s> 你｜li2 欲-去｜beh4-khi3
-0.578465	<s> 等-一-下｜tan2-0tsit8-e7 欲-去｜beh4-khi3
-1.0288525	<s> 恁｜lin2 欲-去｜beh4-khi3
-0.176446	<s> 紲-落-來｜sua3-0loh8-lai5 欲-去｜beh4-khi3
-0.176446	人｜lang5 紲-落-來｜sua3-0loh8-lai5 欲-去｜beh4-khi3
-0.578465	<s> 結-束-了｜kiat4-sok4-liau2 欲-去｜beh4-khi3
-1.1842922	你｜li2 人-佇｜lang5-ti7 佗-位｜to2-ui7
-0.62123686	等-一-下｜tan2-0tsit8-e7 欲-去｜beh4-khi3 佗-位｜to2-ui7
-0.18978727	紲-落-來｜sua3-0loh8-lai5 欲-去｜beh4-khi3 佗-位｜to2-ui7
-0.62123686	結-束-了｜kiat4-sok4-liau2 欲-去｜beh4-khi3 佗-位｜to2-ui7
-0.5864397	<s> 伊-佇｜i1-ti7 佗-位｜to2-ui7
-1.1384529	伊｜i1 敢-有｜kam2-u7 聯-絡｜lian5-lok8
-0.58492464	另-外｜ling7-gua7 一-个｜tsit8-e5 聯-絡｜lian5-lok8
-1.2660522	我｜gua2 佇｜ti7 台｜tai5
-0.70991886	台｜tai5 中｜tiong3 阮｜gun2
-0.5872535	中｜tiong3 阮｜gun2 客-戶｜kheh4-hoo7
-0.5872535	阮｜gun2 客-戶｜kheh4-hoo7 遮｜tsia1
-0.5872535	客-戶｜kheh4-hoo7 遮｜tsia1 。
-0.58492464	恁｜lin2 人｜lang5 紲-落-來｜sua3-0loh8-lai5
-1.0541155	<s> 恁｜lin2 人｜lang5
-0.96441686	這-馬｜tsit4-ma2 佇-咧｜ti7-0leh4 …
-0.96441686	你｜li2 當-時｜tong1-si5 欲-來｜beh4-lai5
-2.0318675	<s> 你｜li2 講-你｜kong2-li2
-0.80644256	敢-有｜kam2-u7 佮｜kah4 另-外｜ling7-gua7
-0.5872535	佮｜kah4 另-外｜ling7-gua7 一-个｜tsit8-e5

\end\
